var nn_json = {
    "bias": [
        [
            [
                -1.1454235138578552
            ],
            [
                1.0261513534054973
            ],
            [
                -1.3340413953140182
            ],
            [
                1.0646008500328121
            ],
            [
                -2.107813075253707
            ],
            [
                1.3727222902231435
            ],
            [
                0.6135134547037865
            ],
            [
                -2.36507287243167
            ],
            [
                -0.8630291346364697
            ],
            [
                -0.7501284338221391
            ],
            [
                1.6526387903212765
            ],
            [
                -1.4841643992653768
            ],
            [
                1.3141415736391298
            ],
            [
                -1.292063807473492
            ],
            [
                -1.365450238655207
            ],
            [
                -1.039443755420351
            ],
            [
                1.0829104725710625
            ],
            [
                -1.374005546794828
            ],
            [
                -2.0327317591545246
            ],
            [
                1.4475206956686968
            ],
            [
                -2.3451489668819048
            ],
            [
                -0.7647016083443123
            ],
            [
                -0.887984539403631
            ],
            [
                0.6952301117521631
            ],
            [
                0.8237941257606516
            ],
            [
                1.2895449751581345
            ],
            [
                0.7954471809435073
            ],
            [
                -0.744608506330889
            ],
            [
                0.2717637532059004
            ],
            [
                -1.9378424825328433
            ]
        ],
        [
            [
                1.4807791288641166
            ],
            [
                1.8702484042177014
            ],
            [
                1.0941364716571402
            ],
            [
                1.668229578804955
            ],
            [
                0.15633742971335093
            ],
            [
                0.9148780462352716
            ],
            [
                0.7385587695984273
            ],
            [
                1.2662323211276956
            ],
            [
                -0.4634644541752558
            ],
            [
                0.2851061081853439
            ]
        ]
    ],
    "size": [
        784,
        30,
        10
    ],
    "weights": [
        [
            [
                0.013876241609224921,
                0.029695118719566597,
                -0.01991457698884966,
                0.011023944301268693,
                0.05057570375996775,
                0.05641539344517713,
                -0.04409702884939142,
                0.039828094639255955,
                -0.050420822771529185,
                0.03509109366111411,
                -0.02961342161595406,
                -0.035929890436462934,
                0.01900457656259214,
                -0.0593856656332741,
                -0.00587201149435629,
                -0.0053314986719739995,
                0.040980134188855745,
                0.08741233669331083,
                -0.13141243137399783,
                0.046584668505928135,
                -0.004687779461824819,
                0.005441819693740996,
                -0.01141847927576533,
                -0.040316144752154115,
                -0.003392570248072488,
                0.045649396577648625,
                0.04362516936920721,
                0.03259039644402323,
                -1.997429789443893e-05,
                -0.030676572799144472,
                0.054170438263051506,
                -0.07592008096113538,
                -0.02726533383199405,
                -0.031557949508205556,
                0.007836859049257478,
                0.012401460149594278,
                0.03434651642716167,
                -0.05289776221991406,
                -0.002792261344750957,
                -0.06294711778821295,
                0.010466016787069972,
                0.011195299164689504,
                0.057468841743922985,
                -0.042358947938129235,
                -0.028922548566296565,
                -0.0032138287511992857,
                -0.0005772468080358924,
                0.014653894604739367,
                -0.0920352817665786,
                -0.021152974249548852,
                -0.11002098901940346,
                -0.10715991198825842,
                -0.05278018660016239,
                -0.028868906412490042,
                -0.05425335970479883,
                0.045116451593242804,
                0.15734504908637653,
                -0.012012181459345342,
                -0.03676899037653022,
                -0.013113732665451867,
                0.009576433630876747,
                -0.051627094290369234,
                -0.0389942624756905,
                0.07877007487088689,
                -0.05810833620498558,
                -0.08124284457409488,
                -0.03364015984337019,
                -0.013906829908842845,
                -0.010962715841277573,
                -0.042688193161277886,
                0.05341967606567569,
                -0.05142235312499658,
                0.11714457528589091,
                0.06468377543000012,
                0.017217238186387405,
                -0.051984763406233675,
                0.05673543517914754,
                0.027248369625317192,
                0.05428634638483127,
                0.11409655450248118,
                -0.006786314555112892,
                -0.015468319383797722,
                -0.10728554503347482,
                0.0009901262394177107,
                0.0148382055774352,
                0.08190635569611715,
                -0.03595473081893526,
                -0.00400350718168805,
                0.008191769227214773,
                0.09665308782138841,
                -0.0632175301112486,
                0.045816225288714985,
                -0.028030614161261857,
                -0.031035821065274728,
                -0.02059780595273909,
                0.02736847619012477,
                -0.08799423058316957,
                -0.07315740445727087,
                -0.07282178153075661,
                -0.005486403931045682,
                0.014057140401196712,
                -0.08413057325016048,
                -0.0359549863380868,
                0.08556077519963588,
                -0.033922819076651255,
                -0.018251893300248453,
                0.060344475734000695,
                0.0007760513859252009,
                0.021479085764869392,
                -0.008427091406121788,
                0.0235800027025024,
                -0.04248687816946903,
                -0.09330369762613666,
                -0.030057487064126923,
                0.025663618887860454,
                -0.06695242724562141,
                0.049963278303738715,
                0.0030447254231171896,
                -0.019479577281166977,
                0.014883104671898458,
                0.031142646668457598,
                0.05903936863242439,
                0.04452575547260041,
                -0.06864193995322215,
                -0.0370303961941978,
                0.04377095170180635,
                -0.027161316308362486,
                0.012038024238121002,
                0.029684436166303053,
                0.02926576243718172,
                -0.010412175522324102,
                -0.011441102217716187,
                -0.07699971170586489,
                -0.054272889842377936,
                -0.08421155052811272,
                -0.05743360813737329,
                0.023845127668455597,
                0.0040380376370361265,
                -0.02596302763498712,
                -0.013720021007222112,
                -0.04679453690001548,
                -0.06530957835617815,
                -0.006649988389226567,
                -0.07094952554732872,
                -0.015058395419523446,
                0.006006970795076925,
                0.030607938439547712,
                0.017488609206187167,
                0.07171547321785327,
                0.009215479233293399,
                -0.0485871783443919,
                -0.042761665710161156,
                -0.011302632560166583,
                0.06069242452685369,
                -0.031700023022044464,
                -0.06202782142472646,
                0.04069476668962292,
                -0.07948955496782788,
                -0.04686963837046547,
                -0.00821691000458477,
                -0.03364843410344426,
                -0.09282606151493986,
                -0.10544005665037118,
                -0.11453608344474991,
                0.025313460811659073,
                -0.0604298442742869,
                0.017500133861759803,
                -0.07182031662660762,
                -0.09758288647952376,
                -0.021359866592239707,
                -0.035518127717680335,
                -0.02029087372894615,
                0.03488400931394448,
                0.06234484247674254,
                0.06064598124620112,
                -0.026893454461286714,
                -0.02428161223850422,
                0.07398163463356691,
                0.09822857477320315,
                -0.02598712818758023,
                0.03625288427397124,
                0.05518686630016808,
                0.060206373972842245,
                -0.03834485272360568,
                0.010670362392679893,
                0.05202331228355228,
                0.05451818194939955,
                0.03204708017091275,
                0.0311535305471587,
                0.054474856199725384,
                -0.053664808916320306,
                0.000532650164481769,
                -0.037848086131131574,
                -0.0456726299158997,
                0.005183849102009567,
                0.0026532720144872737,
                -0.022782012158289885,
                -0.030189447311061726,
                -0.03288329207525603,
                0.1008631524017874,
                0.015150540208870647,
                0.17201807240708636,
                0.010286124080975522,
                0.03565121554510874,
                -0.009860071035801252,
                0.0312622384732981,
                0.023052428434327667,
                -0.07739992899188748,
                0.029210154127289327,
                0.08448485057049991,
                0.012991501070787363,
                0.04038497488607045,
                0.04297231265920183,
                0.04264848894943852,
                0.09619697653596049,
                0.0019649634450145375,
                -0.007919051585036465,
                0.10160790622505521,
                -0.020869122389939335,
                -0.08975550294748634,
                -0.06795356295850756,
                -0.07625803159342175,
                0.07124576407617354,
                -0.11471215644763792,
                -0.04798941879339806,
                -0.0610006895694894,
                0.0017411081195644815,
                0.010294670263054338,
                0.13238459334776226,
                0.07357193591005823,
                0.05214267683116467,
                -0.012173872637941965,
                0.061478399396024126,
                0.010974527388321076,
                -0.009898080471803733,
                -0.03046860458670315,
                -0.08394676683363186,
                -0.06691723294130886,
                -0.010505865661747889,
                -0.012262258464768513,
                -0.013306747296856962,
                0.018682646148654992,
                0.07430443921165865,
                0.014839984827232514,
                -0.07084766271866638,
                -0.009273600250399496,
                -0.07643723809124252,
                -0.12973910193588184,
                -0.12395443330783223,
                -0.0892617927105583,
                0.055608496432154556,
                -0.014065990418227302,
                -0.022572389635596667,
                0.030239292468158534,
                -0.07333392767590906,
                -0.02211694028787135,
                0.01640626455428349,
                0.08267610506386007,
                -0.0032915808446750384,
                -0.022599931214367396,
                -0.05847682784189913,
                0.05619077906669551,
                -0.025811535930895625,
                -0.19082055537418274,
                -0.35489506536128573,
                -0.051186348326421396,
                0.06436709163619661,
                0.14613320164686733,
                0.11424978977122124,
                0.09069835995840103,
                -0.002593728826213104,
                0.03440577177774404,
                0.04969817150195624,
                0.09679390631336947,
                -0.05288989563207892,
                -0.05491258444044722,
                -0.0898904313963553,
                -0.10175732228721907,
                0.03962700138036227,
                0.04914798333856576,
                0.008907452502784496,
                0.0488704299794742,
                -0.00014565371782747705,
                -0.018755577440806602,
                0.021545451671777308,
                0.015125705692381173,
                -0.05965304743092703,
                0.07016079335923626,
                -0.12370790116570277,
                -0.18923336702544682,
                -0.075496589099061,
                -0.2621863872936449,
                -0.3956981115990613,
                -0.09594390937536956,
                0.06406717894775715,
                0.20650484320853377,
                0.1368276202812399,
                0.1094553956750768,
                0.06519245044150526,
                0.07609839042907081,
                0.20624087213006392,
                -0.021007075418310442,
                -0.12942332533079776,
                -0.04757112474717641,
                0.008033993929028706,
                -0.03804497361616857,
                0.02306695969713528,
                0.06279372826297253,
                -0.007783813929085571,
                0.03345778744716758,
                0.08550581089107605,
                0.08296840760735152,
                0.0471061383020799,
                -0.026375313610931067,
                -0.1552988905484163,
                -0.10965217294517807,
                -0.13156556774927028,
                -0.16088957872332782,
                -0.056741878098386045,
                -0.22439731068489088,
                -0.33779384958355796,
                -0.03965845886027922,
                0.057534772600674286,
                0.09131817231767349,
                0.08313273271484611,
                0.06708048972391138,
                0.13466056160596987,
                0.0878373720442529,
                -0.05263033161518845,
                -0.1108334075613066,
                -0.14275036824863932,
                -0.03147648193664401,
                -0.0075056058308754225,
                -0.050802242380522465,
                -0.06836109713744323,
                -0.07968270838359262,
                0.020146056401652145,
                -0.012406089009960177,
                0.06038933640798684,
                0.0044722344063195365,
                -0.1576789909265145,
                0.0012461351792382041,
                -0.08412833197509323,
                -0.1597694251980052,
                -0.10827251142111119,
                -0.10955749098354726,
                -0.10003607981162611,
                -0.07455589297224266,
                -0.05340778144793269,
                -0.006995378408722492,
                -0.03911956472141473,
                0.03159544003841109,
                0.012626308192173384,
                -0.01870280112035682,
                0.0057966502632024975,
                -0.07540327623180428,
                -0.09789581209211434,
                -0.04132227905167006,
                -0.056584912780886974,
                -0.039481734680032965,
                0.030399934393808014,
                -0.010742157874706705,
                0.029685439039406052,
                -0.04968451190176624,
                0.01238562414924702,
                0.006699203674692386,
                0.04194543041062616,
                0.0708548833839059,
                -0.009189730246622316,
                -0.11043461492860707,
                -0.05994773453754531,
                -0.14248888819237265,
                -0.08152734799315033,
                -0.053745477023782115,
                -0.06799499781843055,
                -0.034251542415067025,
                -0.023651059061317873,
                0.02576192566281913,
                0.0486779064805661,
                0.03883675562578694,
                0.09049867403982716,
                -0.0168727147792895,
                -0.02088765444040145,
                -0.07813758272743546,
                -0.13788889785083608,
                -0.12479060881158283,
                -0.0864537550786872,
                -0.15574451801587552,
                0.004539991844846071,
                -0.04714153611009716,
                0.043540788132649534,
                0.047307284986728405,
                0.033665479181584836,
                0.06760157556453562,
                -0.02532540865451053,
                0.0478441143692858,
                0.03882050579840302,
                -0.013781343594201285,
                -0.09783318737574746,
                -0.2368662182897254,
                -0.17699467759117443,
                0.015501719549859684,
                0.024405814184381036,
                0.04341870097537012,
                0.14225160179296015,
                0.06713836331216193,
                -0.008394739889660588,
                0.015722046159105444,
                0.036377844093116424,
                -0.0958168886764873,
                -0.007742491073344348,
                0.08878532560787862,
                -0.003305034681506074,
                -0.05261266362231735,
                -0.015874850128663534,
                -0.1581508873346519,
                0.03419669744217449,
                0.030933233290597367,
                -0.05289023220608411,
                -0.019258634228756944,
                -0.04804342458418243,
                0.03531536038379903,
                0.03451934070384398,
                -0.030634165647389765,
                0.05371435533484103,
                -0.11105112191598594,
                -0.16489116106794027,
                -0.07875641916904756,
                -0.06623634985768727,
                -0.04938457334729547,
                -0.08101238292032568,
                -0.1289157613772184,
                -0.03989134478731657,
                -0.01314654484761372,
                -0.08815095671521554,
                0.042974900404514224,
                -0.0011479961667528286,
                -0.07285916041207738,
                0.0045570475605282885,
                -0.10048652638691165,
                -0.03139216502516888,
                0.008136815373786183,
                0.04757627031839734,
                0.01409802659160297,
                -0.06394267878709571,
                0.009584661409594353,
                -0.004982925177977977,
                -0.1140123201879027,
                -0.12552256841818998,
                -0.0369721976699136,
                -0.10948344987112288,
                -0.019760876673214356,
                -0.017531653557714126,
                -0.2107520596580167,
                -0.11140124157613952,
                -0.12562749692742278,
                -0.1212502236328396,
                -0.1348627046985047,
                -0.06599760730963004,
                -0.22264307134791647,
                -0.18858837341437032,
                -0.05284424445861186,
                -0.23894829382028496,
                -0.09889531476331809,
                -0.0579251589042114,
                0.013489712793981801,
                -0.07263762229227387,
                -0.000815167355472258,
                -0.04389544301787496,
                0.07386700951236667,
                0.09222621545184283,
                -0.006570632457866311,
                0.016490259372746698,
                -0.0228626829621256,
                -0.016278643304219464,
                -0.02117419806688335,
                -0.02371348115568255,
                -0.07530621570246854,
                -0.006723476235080439,
                0.040451472679026566,
                0.007215683886148789,
                -0.12333504502293674,
                -0.04412225278928594,
                -0.07400400665273657,
                -0.018049541211861475,
                -0.08121146167940593,
                -0.10798272650068023,
                -0.17081730818980173,
                -0.1597952239312127,
                -0.14831565129440852,
                -0.180272447030493,
                -0.14179475998251978,
                -0.0991208195947311,
                -0.06327172113431687,
                0.04856747870301383,
                0.036860179287948526,
                0.006002207115234021,
                0.03384897095893314,
                0.020698192274436828,
                0.016967727370647903,
                0.024717284875832912,
                -0.076649116579356,
                0.004981464130103095,
                0.04093912847087607,
                0.01691589840145197,
                0.022186089815097784,
                -0.01878199320050196,
                0.10280358955709824,
                0.11708203254637796,
                -0.012472404008875698,
                -0.0783672342548358,
                -0.007720916511767513,
                -0.06729324886662588,
                -0.04505986429949576,
                -0.13953164499788992,
                -0.14657307850610957,
                -0.14492298376522914,
                -0.10166165585048849,
                -0.22870717748253877,
                -0.055743801541531066,
                0.026940076881030936,
                0.018860535689069646,
                0.12509713708447198,
                0.05891441995545216,
                -0.03159444768875544,
                0.10315233399377892,
                -0.05962500061472775,
                -0.03634917749867034,
                -0.05866729604388949,
                -0.04737902737914838,
                0.007829449112985326,
                0.017213865199136272,
                0.0019706365298407607,
                0.02692953515592041,
                0.02149997985530968,
                -0.03006855198103047,
                0.17475571063020076,
                0.10535487245844678,
                0.03776834059274324,
                -0.07887030287774682,
                -0.0901899594223838,
                -0.026874604108897845,
                -0.08534319989731788,
                -0.10226256589949258,
                -0.07754804801960026,
                -0.09506606358433389,
                -0.09211497271877858,
                0.003814563885459738,
                -0.04107705785111834,
                -0.004591404597503124,
                0.028994325390445448,
                0.025248726672113083,
                0.045964022608388284,
                0.004190495643068401,
                -0.05956082516191222,
                -0.042202430853919955,
                -0.11595009260500318,
                -0.03206617174335502,
                0.04531612962802259,
                -0.013027706834447145,
                -0.018722358835501007,
                -0.07694368770455123,
                0.03620558338245068,
                0.05557439622107826,
                0.011674775549197594,
                0.03246447643099127,
                0.06616213385004037,
                0.04037648657757274,
                0.03953221772982272,
                -0.0438047569644445,
                0.042892836558997775,
                0.06926786700094273,
                -0.01796007280640952,
                -0.09996634377939129,
                -0.04352189084257007,
                -0.031658700047308516,
                0.007352052618944456,
                -0.036613028517488336,
                -0.1037658917015877,
                0.00584157970297884,
                0.12887891969006568,
                -0.031265901407534366,
                -0.07945251996584805,
                -0.07354619189305482,
                -0.07058718581769598,
                -0.0287329888194199,
                0.06632959395877434,
                -0.02935097063747709,
                -0.05403590999411241,
                0.06154341712964191,
                -0.03460516000826232,
                -0.007855916021059449,
                0.008906362631694593,
                0.003610544076356213,
                0.046463218430961455,
                0.0423293559724988,
                0.07748107691124628,
                0.005594535619576557,
                -0.0001290150428156504,
                0.06511412750604945,
                0.04231493911208066,
                0.0619655556579454,
                -0.011574006437109928,
                -0.046273854018584006,
                -0.051288985909109644,
                -0.014002919400749063,
                0.04586323729311257,
                -0.04974278432244554,
                -0.03074287325314848,
                -0.005795025630320493,
                -0.13790001344987177,
                -0.06634177138680365,
                -0.011011789464446763,
                -0.08283066965415546,
                0.04218428044622953,
                -0.0803170078700046,
                0.0587012838253038,
                -0.07726293359922119,
                0.06481020017100438,
                0.02496205516114249,
                0.07658155899192112,
                0.0139304640518947,
                -0.04276613569549849,
                0.004376842202647592,
                0.014776231748089988,
                0.04517470413110344,
                -0.04124642976365608,
                0.040324339827503976,
                -0.059441502434166335,
                -0.01093173375901203,
                0.006133018629301523,
                -0.028237389996029694,
                0.09319770543843547,
                -0.05745753028866512,
                -0.03747043259625023,
                0.03668841294844609,
                0.004496466729103148,
                -0.07962184846972903,
                -0.06585375193012823,
                -0.0019421979080902184,
                -0.02048000974551405,
                -0.005891684244920918,
                0.029503644676965753,
                0.015418690783550118,
                0.06691772866641574,
                -0.015840715861765584,
                0.04661344267756724,
                0.030936756598218266,
                -0.029090196722569746,
                0.027481362839329015,
                0.105817441409942,
                0.0968361895741127,
                -0.01499839844115076,
                0.08195697437565942,
                0.09765457330903397,
                0.018110480460854065,
                0.017900003988456994,
                -0.02545214166848738,
                0.048713081861074335,
                -0.016607928155275127,
                -0.030805377451310244,
                0.024620828708787238,
                0.04166512587265895,
                -0.0068067036709281775,
                -0.08738322821772962,
                -0.11029641389548592,
                -0.009533353757550047,
                -0.01821685109166559,
                0.023888075241929554,
                0.022458500206883985,
                -0.06169792363294246,
                -0.0802213301682139,
                -0.008745463480359924,
                -0.002397217180723288,
                0.013876846163455922,
                0.011474647586331072,
                0.0023693915002070917,
                0.12030785748282077,
                0.0654702708803046,
                0.003216186330750998,
                -0.0445877196828093,
                0.010191342063283999,
                -0.050262252394480164,
                -0.03172236506180334,
                -0.038403973966041366,
                0.02665165778669819,
                -0.09962130773320177,
                -0.00833218099397654,
                0.0012671207879794357,
                -0.08711681825310831,
                -0.03897014870939286,
                0.008796833685127164,
                -0.0953031306469657,
                -0.07416152322833723,
                -0.0196519727129683,
                -0.006576860291461214,
                -0.035880709878486176,
                0.034368828931458,
                -0.0057303181630361305,
                -0.042980838636611715,
                0.04033266162813677,
                -0.0039917201082866755,
                -0.0390018742831761,
                0.04616655105468551,
                0.03287929562514272,
                0.03638148583476566,
                0.01697722892097409,
                0.012115956890494878,
                0.024504864186381394,
                0.08279767683066319,
                -0.06480972609835081,
                0.016306389879744584,
                -0.03565473176766515,
                -0.011937453635719493,
                -0.054263723809118695,
                -0.07656633347742356,
                -0.15384122060963773,
                -0.06487423672115425,
                -0.09184077543510913,
                -0.06479845836681307,
                0.01466986874821394,
                -0.04489282186619943,
                0.01805498938792331,
                0.04272431936956392,
                -0.03295229102966588,
                0.010169236149521343,
                -0.0023900440336166,
                -0.05349838487034161,
                -0.02462432326122449,
                0.0971705851500757,
                0.02665264045192993,
                0.05219680800162009,
                -0.011357891360835171,
                -0.024797411521317616,
                -0.03151031079891329,
                -0.028249999134492748,
                -0.0029237024552390403,
                -0.03776491134944514,
                -0.028401708663993348,
                -0.03727955226586785,
                -0.032859874734737685,
                -0.03373881695364266,
                -0.048137185610326934,
                -0.08372833196924584,
                -0.10659251797560197,
                -0.04333152470026009,
                0.10698607275049586,
                0.005547204359663303,
                0.03862334156174776,
                0.09688656675343879,
                0.06775861555555598,
                -0.07013921559528506,
                0.0559636197949501,
                0.014642961160832321,
                -0.027764293070385505,
                -0.021260786136224816,
                0.06305202331652941,
                -0.07675287809334662,
                0.039622399767513174,
                -0.045885415571413526,
                -0.010302580970223874,
                0.1008996043795856,
                -0.04563920622707049,
                -0.09575106246986456,
                0.06602190831556554,
                -0.09015468625732265,
                0.05715728253545305,
                -0.00946987936999954,
                -0.008339491726796619,
                -0.04628151244771483,
                0.00808175759271398,
                -0.04217632424483627,
                0.03634334573711877,
                -0.015047770185857684,
                0.0543863323476239,
                -0.01493129812329291,
                -0.05930008730284453,
                0.0032209791902140456,
                -0.0008042553171138607,
                -0.09133977765213787,
                0.057101295949814966,
                -0.029793348767495526,
                -0.03797163763828567,
                -0.0028101308050206535
            ],
            [
                -0.02071664405864796,
                0.002938406107873618,
                -0.019899143551401054,
                0.01024645560547608,
                -0.03987256336427703,
                -0.022767833140378536,
                0.0361852420394084,
                -0.025730602529026446,
                -0.09542378730889675,
                -0.017546376360887676,
                0.00670812797823563,
                -0.0020532196401778905,
                -0.003213723283133912,
                -0.05326679140494219,
                -0.0037243719970371974,
                0.0499934370614044,
                -0.028982099173246515,
                0.04760411028503462,
                0.0012591256813449072,
                -0.05414549479992011,
                0.03853803711552257,
                0.040763793371634674,
                0.06388679563307179,
                0.08199623968888299,
                0.00796895439451904,
                -0.06254105106672372,
                0.08753129846415915,
                -0.007634629442762426,
                0.01335858579489314,
                -0.022000712987338078,
                0.03203762600221444,
                -0.04119023866287494,
                0.021393499845129157,
                -0.043515416834814316,
                -0.003500278492670326,
                0.008471117707964415,
                -0.062030521925177884,
                -0.018383724132497333,
                0.01237249007710919,
                -0.005847183548107951,
                0.007044967624726997,
                -0.03393495743293398,
                -0.06480749980567596,
                0.007418933134288688,
                -0.0461476980962934,
                0.08573221032089172,
                -0.06610270552932392,
                0.037403950353511246,
                -0.09644234113980167,
                -0.07993464152297425,
                0.038166718085742075,
                -0.02061397417905817,
                0.04394236600202647,
                -0.08205447096870119,
                -0.005335339316310111,
                -0.029481665909354873,
                0.0023848860420589823,
                -0.0594585876064273,
                0.03777885236163376,
                -0.020378474642617037,
                0.0011004454334750488,
                0.028350656105018683,
                0.0372436000996282,
                0.06581233427161186,
                -0.07641847536846276,
                0.030632220382976815,
                -0.02782258759482092,
                0.004581753693908443,
                -0.013694653135097821,
                0.04693272025710792,
                -0.044106665082752614,
                0.10694173509169176,
                0.010201475869557422,
                0.08066801369733087,
                -0.02093129752526798,
                -0.03597005784091985,
                -0.00846489439453805,
                -0.06485849888975355,
                0.01429958638842418,
                0.02368931376516801,
                0.009421553481810377,
                0.12194719460661016,
                0.07695871662793312,
                -0.04088638253943754,
                -0.03736925852309365,
                0.05381394320948515,
                -0.00026855541308661035,
                0.03954848206588038,
                -0.05758438001198492,
                -0.0705697954951968,
                0.0344727886603013,
                0.09715643489829359,
                -0.012589969128064784,
                -0.022521835726969305,
                0.020752709666056284,
                0.04398665078595941,
                0.020323561407448346,
                0.07102667839253453,
                0.06929333788625339,
                0.09553754362886797,
                0.015058412705248192,
                0.1043753460289597,
                0.12094002167123626,
                -0.02639774204127291,
                0.02782209443406375,
                -0.0183868798866047,
                -0.006799878809068666,
                0.03047439118904809,
                -0.006803693961088927,
                0.05040100069482125,
                0.07802331248782643,
                -0.0639077120505794,
                0.03262794199382753,
                -0.062262671189656504,
                -0.08606953295542616,
                0.04988641767969873,
                -0.011398481634836435,
                -0.059159795175174786,
                -0.03256819588221778,
                -0.01640875609728934,
                -0.00987034253949868,
                0.11336175886067558,
                0.10345049110863662,
                0.0827855433452663,
                0.11262813344649318,
                0.09420035573514855,
                -0.003648926322471615,
                0.11117625050886323,
                -0.009767687753586414,
                0.04558859816298828,
                0.06305871970083844,
                0.024983004567660422,
                0.03727658921031929,
                0.044456457417535546,
                0.059566228279910816,
                -0.002562198604870023,
                0.011298401142918305,
                -0.0037573518454730725,
                -0.04602151677388586,
                -0.010470808370261715,
                0.06758305840640641,
                -0.04590463823524869,
                -0.0037654288209337168,
                -0.015367067505046801,
                0.02274892930926062,
                -0.00913373025336117,
                0.08410677183235497,
                0.09626863919554982,
                0.05978400422125317,
                0.16092014363795662,
                0.045983608175239415,
                0.03337801284659877,
                0.04743643563614956,
                0.05489267103685059,
                0.05738929529630095,
                0.006802701798434446,
                -0.034845653817622745,
                -0.006779690158726496,
                -0.0007273252705442892,
                0.08882982764032253,
                0.050190907198154236,
                0.0212374975254826,
                0.08321473406954723,
                0.043966502633089086,
                -0.015281247931755145,
                -0.039012730442136184,
                0.03309186477161483,
                -0.013674022174131165,
                0.049747430464419755,
                0.07210108721766614,
                0.004007934009567104,
                0.039566322214572715,
                -0.019441887532646078,
                0.013081753821457938,
                0.04531689754736238,
                -0.037834505776039966,
                0.04189311263538717,
                -0.013972893589021023,
                -0.04365993160138738,
                -0.03653175143362126,
                0.04542391110940992,
                -0.02996272332930578,
                -0.008286124570194706,
                0.011827780497429094,
                0.01829323277639476,
                0.03753044040024535,
                0.04798528144715241,
                0.045403451588878596,
                0.013163207309877134,
                0.08925629014488674,
                0.013459226814328644,
                0.08642871476169878,
                0.04881266934496889,
                -0.04590251019280469,
                -0.023319595172707618,
                0.1200549117178495,
                0.020720086001521778,
                0.08395894262273304,
                0.00701819738735042,
                0.010244635087423865,
                -0.024210569166815122,
                0.036616402011655,
                -0.11301274614200624,
                -0.005861811118794469,
                -0.03200011279496005,
                -0.01135836008368715,
                -0.03067590634794769,
                -0.04970717406095627,
                -0.06369016437236193,
                0.04948717534079662,
                -0.07177496074564113,
                0.013971910996928568,
                0.011572190331299931,
                0.034101643060685305,
                0.06054063369326993,
                0.1418371289883705,
                0.02694299870506275,
                0.016380699630093944,
                0.036631630013798974,
                0.05350281588317557,
                0.10611703378032152,
                0.05552021371167373,
                0.04227918574294983,
                -0.034839678039929205,
                0.021714481417603675,
                -0.01762304472983792,
                0.11031426293469464,
                -0.0230651733857458,
                0.01014536801627278,
                0.16003632586618954,
                -0.0017362958706294866,
                0.015597433145411333,
                0.1218277510479955,
                0.08888029964514038,
                0.04552690211343444,
                -0.010587417446810559,
                0.05557291342274833,
                0.00027063357847067766,
                0.011927896833623032,
                0.021148510653631297,
                0.0455958211773042,
                0.06820324909310806,
                0.020890108285935696,
                0.05736095276046827,
                -0.0004206310489321253,
                0.1254059384885025,
                0.03765213793412472,
                0.12418692088366647,
                0.03088087284332552,
                -0.051854805639730654,
                0.002261533071303565,
                -0.010158914924179663,
                -0.017338439842100872,
                0.02691223041758808,
                0.04049631794528095,
                -0.00750282260045523,
                0.05138709407057548,
                0.04454933963594748,
                -0.014403650230059356,
                -0.07781937033393341,
                -0.06565589093486297,
                0.0010521961413466091,
                0.0032225159315859295,
                0.03575725883570108,
                0.04036591327256534,
                0.16787947637124528,
                -0.05487141359211189,
                -0.11351621682362889,
                0.021511654732884283,
                -0.029090094069220043,
                0.06880422038672601,
                0.01042397276404142,
                -0.04822391150137015,
                0.027128457008732045,
                0.08641868843897611,
                0.0370255859439704,
                -0.04090661712789897,
                0.012915182938247123,
                -0.02159996479817787,
                0.030039302761459143,
                0.061989656846167494,
                0.06504748667699142,
                0.050493877649560814,
                -0.021854293953658892,
                0.02955852132764569,
                0.05577398118747431,
                -0.01932944865934377,
                -0.008157059841213394,
                0.025938464428327226,
                -0.02577264701118753,
                0.13079229758419508,
                0.07394701200404484,
                0.0436652102786461,
                0.06160714120611545,
                0.18746022642828356,
                0.025832883591578037,
                -0.03662368567968194,
                -0.05109449772200308,
                -0.17177584002306773,
                0.04936738708160974,
                -0.012575683880418036,
                0.024271622256406725,
                0.1027941772255073,
                -0.011752402776686146,
                0.05423252422561402,
                0.00900447084909229,
                0.04338138721847268,
                -0.031063952643366595,
                -0.04933200191085737,
                -0.0973224564948346,
                -0.11865651019528202,
                -0.048834348598102845,
                -0.016806059658110644,
                -0.057546665644231526,
                0.14830229630964606,
                0.03487206195046967,
                -0.009009935039974604,
                0.06528259771258019,
                0.04151233909373533,
                0.1321357123903883,
                0.10872960548054929,
                0.2258010819175846,
                0.3111462001269216,
                0.09216631630002146,
                0.10764159329736088,
                -0.025643444375922184,
                0.007039528993828476,
                -0.07471490452870201,
                -0.04338270228077575,
                -0.0094149167510834,
                -0.024999881507923736,
                0.08814707319430873,
                -0.058910876258508146,
                0.02883128555165516,
                -0.07771369042907134,
                -0.0483247652651219,
                0.012867157230909145,
                -0.013627351527436785,
                0.036032394859602496,
                -0.03859665798083442,
                -0.0741639234350738,
                0.09222578470587948,
                0.16012707742580942,
                0.17804772526561538,
                0.11511910981662929,
                0.19655917383050098,
                0.09691926876131492,
                0.15968787342397145,
                0.12192389093206908,
                0.1151737437177653,
                0.2114126971543345,
                0.04875642905618833,
                0.06417719871870227,
                0.10389554323917574,
                0.06048370474323495,
                0.0013176509750035107,
                -0.07781249640128582,
                -0.027148152166959778,
                -0.041843980297086095,
                0.07251387265590409,
                0.10666691808867211,
                0.06349975853454332,
                0.0007483754385229399,
                0.045746629236837,
                0.09811175971537538,
                -0.05508531523467996,
                -0.043154222726299776,
                -0.10753114540750314,
                0.034235610247740134,
                0.08943094985764585,
                0.14136561409536652,
                0.1677867982865093,
                0.18939402878546227,
                0.15060573554664755,
                0.13840088955930988,
                0.09857007382152785,
                0.04935889044165205,
                0.017247910393794197,
                0.05718990934914252,
                0.06670578199514163,
                0.07613200331061165,
                0.04907223088730967,
                0.04183373630718293,
                -0.0455853486832561,
                -0.06419498754576314,
                -0.016247586608671188,
                0.0874070501817317,
                0.09457759978480644,
                0.06924413493604663,
                0.021881614224995665,
                0.09928009557634636,
                -0.0535915486637379,
                0.11815340061421575,
                -0.08750907523858624,
                -0.052098915547567584,
                0.02011153948705887,
                0.027977336281464815,
                0.08682734837174129,
                0.07984652994277652,
                0.13679546840287318,
                0.1348275353026637,
                0.08624266649795993,
                0.00931308302785173,
                0.027239005216461682,
                -0.11449408409651297,
                -0.1034424482033861,
                0.04586456610695635,
                0.046084078922451664,
                0.03931704655172465,
                0.15024107301403394,
                0.10225751422807584,
                0.05036282134476609,
                0.03719424767868489,
                0.08910268892330346,
                0.11227024495480223,
                0.08341576878494263,
                0.053586240928179124,
                -0.008834421725609262,
                -0.03196682484609474,
                0.04535784553034075,
                0.01530343617751191,
                -0.043058403761117796,
                -0.005118135708411108,
                0.07434991729730889,
                -0.019650331029015394,
                0.046086206629318276,
                0.013921628050152497,
                0.08078228234129685,
                0.14358214621986293,
                0.15063011984881777,
                0.01707674786684765,
                -0.1250897024575941,
                -0.07441303783333694,
                0.03605961447171938,
                0.05700928212910907,
                0.06112189593700069,
                -0.019937034786003293,
                0.007674109010279035,
                0.15089988223103784,
                0.09965485540256962,
                0.1378618203235061,
                0.17914609710513268,
                0.05996286218296659,
                0.03680940251272439,
                0.019493758228625365,
                0.039918928869031575,
                0.05890532141806324,
                -0.0207956660035518,
                -0.035283094985820086,
                -0.05024774234788115,
                -0.04495092149756515,
                0.0347349302170585,
                -0.02857710404697013,
                0.08757190831552876,
                0.0855025060149965,
                0.06060345240243601,
                0.081558099232248,
                -0.11082325939488182,
                -0.0635799001444093,
                -0.06254605664762823,
                -0.007235952647237889,
                -0.06395577157452047,
                0.06708053687143406,
                0.005108599477557198,
                0.08926204386694576,
                0.06599586480130022,
                0.06527525954449892,
                0.11499729758029502,
                0.1303203467400685,
                0.058350351254238264,
                0.012435666403836912,
                0.17740896590427818,
                0.07605560976373618,
                -0.01660199320996649,
                0.07059475379366693,
                -0.10764113276477498,
                -0.0157602647271109,
                0.028497415493083617,
                0.03252361564510234,
                -0.02294283954372456,
                -0.01893366704033139,
                -0.033845584635098784,
                0.094926639875178,
                -0.0346568884336653,
                0.01920086640686998,
                -0.13346463414623208,
                -0.0774737170860538,
                -0.06546057812706713,
                -0.13978309593874505,
                -0.032198229907332516,
                0.035418076268883575,
                -0.022165045661851103,
                0.059644983318568184,
                -0.02145804933908974,
                0.07355341883352957,
                0.11532268506976126,
                0.16004031117456072,
                0.08408298532206783,
                0.10747987506920564,
                0.07344236244934287,
                0.03727963682403507,
                0.09816367845256264,
                0.03266618650350272,
                -0.043173457444170615,
                -0.06975857598494986,
                0.007987148717853517,
                0.08420863072851238,
                -0.04303901968292363,
                0.08771503558862374,
                0.016001784424461946,
                0.014720509280228876,
                0.062111707799045526,
                -0.06893488234401873,
                -0.07551622729335222,
                -0.07330664712463551,
                -0.18754619548270943,
                -0.21012658036169385,
                -0.12944198239729077,
                0.01406202569830533,
                0.0052170506520506175,
                0.07613390951462953,
                0.07661973004833735,
                0.036654385115893064,
                0.029735368487605707,
                0.07654719263902356,
                0.13178218563489047,
                0.07219968685993405,
                0.10064036136808635,
                0.07458773792129114,
                0.011072670005700974,
                -0.0020802660850550267,
                -0.038292670927943646,
                0.07240216300949806,
                -0.01891142095749041,
                0.00035654475614039615,
                -0.0929464608253461,
                0.06396657028696616,
                0.08938080549246616,
                0.04791073314210361,
                0.15507704207932416,
                0.15176641027495863,
                0.09361436750686343,
                0.0970347645468572,
                -0.03274707187928385,
                -0.13939259058448117,
                -0.11120815112446868,
                -0.01304563862808514,
                -0.05886562094694619,
                -0.01108540328710188,
                0.036534166063227194,
                0.0020819344724153266,
                0.022100041505746557,
                0.08080880469768263,
                0.05672732631077355,
                0.005445544062733137,
                0.1325554941137966,
                0.08600203777924657,
                0.02973933915538461,
                0.06592349203015241,
                0.016860384208303304,
                0.011977728220425202,
                0.07624159502930099,
                -0.04556791671669798,
                -0.03065955765997131,
                -0.02190428124146736,
                0.09470921797274363,
                0.10458770661017609,
                0.034735540675281555,
                0.14800999486045452,
                0.1208212565287276,
                0.14176878381560906,
                0.10339214896639069,
                0.16192245866975127,
                0.013286245566375515,
                0.00865772782159067,
                -0.01287675582698732,
                -0.04925569734945513,
                0.10919110629558784,
                -0.10808293242127899,
                -0.0633003159220788,
                0.03045883995766341,
                0.06733317752174912,
                0.0641505858684101,
                0.10091462711107975,
                0.09858262506677083,
                -0.05089415366014369,
                0.004702713784838469,
                0.0443141671619703,
                0.0020389716127713477,
                -0.015253630627990837,
                0.00902971458974769,
                -0.11956621403594223,
                0.06343558801110069,
                -0.012950944321688933,
                -0.049288493480122986,
                -0.044038928783889715,
                -0.0033722114257752176,
                -0.020299597019024954,
                0.0937919334921746,
                0.014994198526551318,
                0.08737764293939457,
                0.10959706195848902,
                -0.027977645112060506,
                -0.05609687166736928,
                -0.04329568417754334,
                0.09629896511177713,
                -0.027817725135857355,
                0.020366761530140193,
                -0.0024443875657688355,
                0.039091047151737626,
                -0.0034671899825880824,
                0.06801467905227981,
                0.07915096797110746,
                -0.0061165518788817725,
                0.03224933388946728,
                -0.04479686433469011,
                -0.032997625037340945,
                -0.08197531809290394,
                0.0653291680302813,
                0.06206549805539369,
                -0.008229367784135464,
                -0.0356205924899493,
                -0.06895499774123458,
                -0.07571320800311253,
                -0.04111413970413571,
                -0.11809562621546513,
                -0.03987908996742322,
                -0.09301210702458075,
                -0.11873890230192308,
                -0.027027388237357293,
                0.06918377387779569,
                -0.05970690703493068,
                0.040567876186157516,
                -0.041334284179868626,
                -0.0465155381474945,
                -0.028592702394649158,
                0.12165135873442151,
                0.04308419972417999,
                0.02965494843580081,
                -0.021144004807162945,
                -0.018224250206107333,
                -0.006822469005445257,
                -0.09782737304756926,
                0.03992558397385204,
                0.10505345686942276,
                -0.02307810158810088,
                -0.02297031767421132,
                0.03138186354331833,
                -0.038140037837809955,
                -0.054303459353480174,
                -0.03181164716535184,
                -0.005046194773087622,
                -0.08135337223719111,
                -0.0758151962079733,
                -0.04316983060293253,
                -0.0442103601791207,
                0.016687615568116248,
                0.07085691579324688,
                0.01533261023060984,
                0.05476154430254007,
                0.040552276162399196,
                -0.06150446462601689,
                -0.09246973759638535,
                -0.004002186688613298,
                -0.03302485126536654,
                0.04325148847380283,
                0.003735197831199348,
                -0.00798444970089232,
                -0.0361790170454549,
                -0.08183251736343702,
                -0.004047205269385038,
                0.07206339878891618,
                -0.02673254645141724,
                0.01181847653955762,
                0.06190390039460962,
                -0.06780993891325159,
                -0.043524363774424396,
                -0.037882232456181844,
                -0.00018193317123985566,
                0.06826380786051303,
                0.11911135932564183,
                0.14601858881181745,
                0.09375776123070823,
                0.08893785216491475,
                0.08065026349227773,
                -0.022004814204425894,
                0.004068687889265993,
                0.03595986163927284,
                -0.0757950135919392,
                -0.010891624553991971,
                -0.03178529056438108,
                -0.009881632874403315,
                -0.024825349783329512,
                0.03210888816210225,
                0.06135542442149702,
                -0.056275891553445805,
                -0.04113171292828761,
                0.030722431540149715,
                0.007515760431934157,
                0.03466396135426123,
                -0.03857536622619269,
                0.05060215358519356,
                0.0014382126708702059,
                0.003149284569219522,
                0.05459609098220847,
                -0.046481722514910465,
                -0.039024162065425354,
                0.014627312036563435,
                -0.06142886685507506,
                -0.006818268168978986,
                0.04532965909737915,
                0.06423310095155625,
                -0.022171738645845658,
                -0.034633279300762675,
                -0.005631454354810202,
                -0.03723416091623755,
                -0.02660087420045319,
                -0.012520141799618984,
                -0.12117027871039666,
                -0.22765352528245975,
                0.05943034860705211,
                0.02960652819155032,
                -0.004704350440503072,
                0.053166980650097784,
                0.03236890900006102,
                -0.09784549009184364,
                -0.08844550415651702,
                -0.08157191785130061,
                0.051212582573947896,
                0.02414866504335627,
                0.06307238271323949,
                -0.008439218496481325,
                -9.223601779718834e-06,
                0.016583367941774216,
                0.061242510250660284,
                -0.007884258539879558,
                0.09993200826554151,
                -0.05596953954799949,
                0.05043691596316873,
                -0.05173272538211893,
                0.009862302183903835,
                0.0586131016980745,
                -0.025018990822956062,
                -0.01901627732735724,
                -0.03154382622703619,
                -0.037173973619642676,
                0.002566841545530344,
                -0.04520117495945448,
                -0.03920226219277885,
                -0.07662112527195514,
                0.009415989588785926,
                -0.019193948107815984,
                0.013795977672474355,
                -0.027467015260763134,
                0.05891849376741653,
                0.041617453930512575,
                -0.04551886320510584,
                -0.030345159035129906,
                0.01458173650089234,
                0.03278425323282029,
                -0.03032901039936569,
                -0.05438522218502551,
                -0.006344260093694536,
                0.07210507095909563,
                0.06908495297191762,
                0.01593897286659709,
                0.05870045339663886,
                -0.10316089375528903,
                0.024593607750181663,
                0.019682138641986834,
                0.04126756032637614,
                0.02370718339430033,
                -0.038778391046496906,
                0.0038410686058561977,
                -0.017968383135408886,
                -0.026310559955482204,
                0.040691398662283315,
                -0.0852459217349301,
                0.016842270523915685,
                0.0013206376687104012,
                -0.014220281815649834,
                0.05719412347343661,
                -0.09854349094415535,
                -0.08992613802641172
            ],
            [
                0.028182476598496837,
                -0.041957064913474715,
                -0.04708418825282517,
                0.021395686616399446,
                -0.06349034743169563,
                -0.008397028754348973,
                -0.055774741235981085,
                -0.0469572717170882,
                0.05598178701025599,
                0.034555136107647794,
                -0.06486513057827241,
                0.04015359184147598,
                0.017889819935044026,
                0.029184398169229277,
                -0.015917558982927942,
                -0.042736927281308096,
                0.04966159513781383,
                0.034748517018237925,
                -0.07539916998195574,
                -0.03425762291249737,
                0.053965801980069165,
                0.06145536897941926,
                0.07548359567057787,
                -0.03642948424898975,
                0.00439298900599157,
                0.09694706564315553,
                -0.02386582574270132,
                -0.055861573606779985,
                -0.06801995599503043,
                -0.05357286967377363,
                0.0709631598606939,
                -0.06518850784136512,
                -0.05276464055650409,
                0.08334114192109272,
                0.004810624129719073,
                0.10344595345136051,
                -0.11242275541163851,
                -0.0332731250598792,
                0.024500076051710583,
                0.004081465505488203,
                0.002375092478072668,
                0.01624625656652559,
                -0.00301286031649448,
                0.09228541437169577,
                -0.07805469035564175,
                0.008333343131436062,
                0.03493998434993957,
                -0.007542887413650492,
                0.05636284610838769,
                -0.017971464690158777,
                -0.11250202703581925,
                -0.07064436045812374,
                -0.01163098993343691,
                -0.032813670381637475,
                -0.005870306111125345,
                0.03410469367953928,
                -0.05666633710499663,
                0.01893097575719048,
                0.016774164046405297,
                -0.046328764796253745,
                0.09389148222254685,
                0.05588032096473986,
                -0.019214596449673896,
                0.019004586954180197,
                -0.11449415474799729,
                -0.06898114193766013,
                -0.03571747358586649,
                -0.07400354752997856,
                -0.10164788883339941,
                -0.04307598028760665,
                -0.06014538009404554,
                -0.07102246672777654,
                -0.10024967796337514,
                -0.07246566035490519,
                -0.09787437683595578,
                0.006124107821370329,
                0.022464669614772222,
                0.004248827963651135,
                -0.07169125485993695,
                -0.0021385510666799955,
                0.07598425156922285,
                0.012516834040480039,
                -0.03939018040311836,
                0.04896481011757031,
                0.08012392923225013,
                -0.02470463173556496,
                0.03073902937014427,
                0.10752497797856318,
                0.09604982479814626,
                -0.00842104421416163,
                -0.05395882935278237,
                0.0038863450809806604,
                -0.0721001217825495,
                -0.09927940771792733,
                -0.14542086521581282,
                -0.03866739628499641,
                -0.01871344632086818,
                -0.11274719068186002,
                -0.10948570697623955,
                -0.12208336943685619,
                -0.2327264215416249,
                -0.1163413540142355,
                -0.23418541826517983,
                -0.21936219197847143,
                -0.1116730315235808,
                -0.030364443371902177,
                -0.04679201196067509,
                0.012404987857932627,
                -0.02152523563873219,
                0.04502975508522791,
                0.06110385735439567,
                0.01687808468830475,
                0.0005715013961149524,
                -0.005136861005118073,
                0.025260273440224607,
                0.00723284223755299,
                0.04711032297076064,
                0.008691430587348795,
                -0.004525900355471367,
                -0.03124115772711163,
                -0.10092626252028258,
                -0.02747600447821612,
                -0.04334236751707969,
                -0.04926015813926128,
                -0.11414268739181993,
                0.0065988227138239364,
                -0.22234166823623072,
                -0.07001442559737307,
                -0.10170360930822511,
                -0.16681619290646404,
                -0.13263585287375101,
                -0.10181409385627316,
                -0.18300168589125304,
                -0.1103208474718408,
                -0.17145395807795336,
                -0.010015599794789335,
                -0.07108193487774152,
                -0.01299758435835417,
                -0.1051477494208916,
                -0.03205716557763875,
                0.053546618268989224,
                -0.050701450219028533,
                -0.03108103372793868,
                -0.10131016931880453,
                -0.0033917356295060305,
                -0.10285578257428511,
                0.00830482924797915,
                -0.13532263086162385,
                -0.02178641434563189,
                -0.021831597686179347,
                0.0860193614218493,
                -0.07532309890189066,
                -0.11822209071221254,
                0.15663223186890401,
                0.06940808634952587,
                0.0005581445521937673,
                -0.08792620460367025,
                -0.017019181654200053,
                -0.04489323039789639,
                -0.20413108731951485,
                -0.132603416067924,
                -0.09491722654733113,
                -0.07792900815276863,
                -0.09939106005752918,
                -0.08264326636979151,
                -0.08543454309817074,
                -0.008994450916515843,
                -0.04699308856739201,
                -0.05983333776452641,
                0.06484996574996522,
                -0.00785257400731927,
                0.07339072470208935,
                -0.0953640592306163,
                -0.05117274402880798,
                -0.027532596433670488,
                0.010133392630537206,
                0.03773375388509798,
                0.0045475587584012205,
                -0.009542394789891759,
                -0.01050914661855561,
                0.000899467179732999,
                0.11723638010783076,
                -0.04373460438031677,
                0.03122003564925154,
                0.09973593607729508,
                0.036982660661026456,
                0.08269194205330126,
                -0.14175444242344126,
                -0.12232358137824138,
                -0.10700061414832869,
                -0.15388309557463484,
                -0.051435937168560215,
                -0.06902384791174922,
                -0.07014759779583754,
                0.008217672315556597,
                0.044504422358053644,
                -0.05996550603215436,
                -0.08295943113185754,
                -0.06250626858487615,
                -0.023329688519966064,
                0.01604368830210184,
                -0.06181380005955661,
                0.029888122614143867,
                -0.006944261543752292,
                -0.06581972464062345,
                0.07274261257423484,
                -0.07279086341458522,
                0.09966091334422283,
                0.025081542865497682,
                0.04970836567914534,
                0.05181787569317641,
                0.027938169892121268,
                0.010190519097707294,
                0.13630594791989337,
                -0.028373072190303193,
                0.04126482365694387,
                -0.06937031365496425,
                -0.18077158368383478,
                -0.1775824725383188,
                -0.17312553050372922,
                -0.14056445460356676,
                -0.06517630736168468,
                -0.02834036620428502,
                0.07027217822568073,
                -0.026123163720049983,
                0.009001578855446451,
                -0.025439428136156954,
                0.011609053199460213,
                -0.09159083175157087,
                -0.023479485023839338,
                -0.11208059261415317,
                -0.03010269681742643,
                -0.001916726909807865,
                -0.10886887163407521,
                -0.004442406247078771,
                0.019430340718448194,
                0.04936288855319942,
                0.05193601150768473,
                0.0700943709627468,
                -0.018313478168839492,
                0.12317143965211048,
                0.040113313661683934,
                0.07939740474477922,
                -0.10055075901874919,
                -0.0465303667719951,
                -0.09340725576272006,
                -0.05837409998790085,
                -0.12675437143835216,
                -0.17015106220257586,
                -0.01898644085662722,
                -9.729881199069705e-07,
                0.023208150927131976,
                -0.027374026453875287,
                0.03231009264909636,
                -0.1329962176927019,
                0.003918640010296433,
                -0.0988833176931846,
                -0.020172230385579405,
                0.00343423384015046,
                -0.049290511786773,
                -0.07335052866731157,
                -0.0478369774133848,
                0.038392472974927844,
                0.01994512349042722,
                -0.06471058205433666,
                0.16659917021105292,
                0.0214701323566191,
                -0.010018332931882193,
                0.04333495634880256,
                0.11369233390394683,
                0.1131572421431871,
                0.05416579860915797,
                -0.1852018224448903,
                -0.1316633755050002,
                -0.11764268848044188,
                -0.08420785831629936,
                -0.18541550490003086,
                -0.017502821329381284,
                -0.0292830436186844,
                -0.07232704903620321,
                -0.0715320189786438,
                0.020364472022767914,
                0.07683912901201043,
                0.014482914750497644,
                -0.048329297257554846,
                -0.024786636429587488,
                -0.0130535544671267,
                0.04182787095880156,
                0.036834558839006104,
                -0.05053469077450496,
                0.05635282643107222,
                0.026651063436017607,
                -0.09306584145492239,
                0.0779222247887005,
                0.09756950236886257,
                0.00015066615357310035,
                0.11826115250710116,
                -0.0032559975948287193,
                0.18730753914354517,
                0.08418175860123318,
                -0.10720173183131788,
                -0.155648991123135,
                -0.20053122776487878,
                -0.1238362732429978,
                -0.1296704812489727,
                0.00461740191484407,
                -0.0742262808129372,
                0.020067717046682282,
                0.02460320493754849,
                -0.02692815534604239,
                -0.04523424915330484,
                0.016154919406245204,
                -0.0393623183024067,
                0.016428528739676356,
                0.08943496118829924,
                -0.040555787931083075,
                -0.06567482604216114,
                -0.013940783589942024,
                -0.06320581762350307,
                -0.028200046338980347,
                -0.02482005689241024,
                -0.08458150588291154,
                -0.19403816851296887,
                -0.1623935794373323,
                0.14499642473946583,
                0.16576345689214733,
                0.05247913925039445,
                0.15704357133542546,
                0.058822864869810476,
                0.00832859665789872,
                -0.13533277289967105,
                -0.05860010079432924,
                -0.10156350904285362,
                -0.026258945760051094,
                0.051057225676464625,
                -0.023116995762756908,
                0.061606382924880555,
                -0.06677145754296701,
                0.02538644260264969,
                0.05018256016122099,
                -0.02065731827976302,
                0.10024386383356973,
                0.024594273819567358,
                0.015935757391033034,
                -0.0015305411856375288,
                0.010303130751826931,
                -0.034469195518731385,
                -0.032409506778121204,
                0.020235414658249604,
                -0.12779949496973902,
                -0.4418382397564364,
                -0.24147136117796736,
                0.06290617468855486,
                0.020576072599504044,
                0.011185750680933849,
                0.044094380520228696,
                0.058296136521636406,
                0.15577146771188793,
                -0.0008681028388174001,
                0.005948363995219694,
                -0.12303160946166344,
                -0.08043676047901105,
                0.006120924769684792,
                -0.08992486806280477,
                0.0308518714364452,
                0.013695544883062873,
                0.0026886658815328856,
                0.12151004183345843,
                -0.02138493138137841,
                0.04454986910566455,
                0.038033726114924775,
                0.09262458219271931,
                0.06564046314129564,
                -0.11818819036209224,
                -0.019851130749183318,
                0.023231359310670222,
                0.03766454332243905,
                -0.26056456009122114,
                -0.40629387804667777,
                -0.34695504705972074,
                0.05960018106618969,
                0.007546230705711842,
                -0.004252368021166568,
                0.023524770953071955,
                -0.09918098549379244,
                0.003682548211910496,
                0.019802387257166026,
                -0.061092809216830635,
                -0.017674688317872028,
                0.022378248350177984,
                -0.05753954028526981,
                -0.007799352769100919,
                -0.004260228155548107,
                -0.04014570201701417,
                -0.1136096970281037,
                -0.023262514297022932,
                0.062433024908200956,
                0.045989535101565886,
                0.04156545934083388,
                -0.017891850703496588,
                0.07856469870650706,
                0.007502679715734814,
                0.06538365753895602,
                -0.06707614264752378,
                0.1011920075815857,
                -0.19614804642816794,
                -0.354018119086882,
                -0.2559815563269945,
                -0.09612691400448585,
                0.04530756751816399,
                0.06054338428083769,
                0.001165052923844789,
                0.06194886260652498,
                -0.024036220222463805,
                -0.0435126424753021,
                0.09662078722874275,
                0.05296260297398052,
                -0.03038548400780377,
                0.06504463931259208,
                -0.0024622081673649735,
                -0.05472224639843261,
                0.022892943543003773,
                0.01845030022204402,
                -0.014882987769355467,
                -0.052449622680115646,
                -0.05420041923919034,
                0.007856253815906133,
                0.0923676378222829,
                -0.03777827439264286,
                0.020697832588013044,
                0.19199589638850006,
                -0.0001836626826593677,
                0.10437639320890643,
                -0.30662559539217926,
                -0.3046080252701178,
                -0.2749504181243531,
                -0.10235650058778192,
                -0.09274619472607022,
                0.022194456751325545,
                -0.1070829904748526,
                0.10309041537281691,
                -0.05511693212556194,
                -0.017659542137322126,
                0.03854675119779065,
                0.10349081497388019,
                -0.12409394398017169,
                0.0029620181837592507,
                -0.04468444795912372,
                -0.0060703026012351,
                0.04349537663208822,
                0.06304572113901945,
                -0.00043259960549439245,
                0.02930386271312769,
                0.04587260764443583,
                0.010410637387209369,
                -0.02971219953220606,
                -0.017403485905128607,
                0.028559963148519624,
                0.13487052396887286,
                0.06800339946835604,
                0.0712334215467282,
                -0.2374613212373858,
                -0.3396557879746737,
                -0.17315162085451222,
                -0.1628556362359138,
                -0.02744253931639201,
                0.012411179174768744,
                -0.06349347007502223,
                0.057359415705679866,
                -0.12086282823606533,
                -0.07856907037037726,
                0.03179279036879577,
                0.11694259582070583,
                -0.03499723099900371,
                0.015028688928241959,
                0.009325122392280324,
                0.030100042625520775,
                0.06078484223629005,
                -0.01356245969544271,
                -0.009943191886300058,
                0.01595109187915287,
                -0.058556808350380456,
                0.027110523667197534,
                -0.0030338218040009686,
                0.0023738455651738256,
                -0.029895293240763208,
                0.09899463664101978,
                0.2213594124997352,
                0.14765207402443215,
                -0.2396647861468542,
                -0.38280962936400653,
                -0.18390345167754565,
                -0.10488134024574383,
                0.03960901458331153,
                -0.09141412216675127,
                -0.04130170179970698,
                -0.04041413477968322,
                -0.006897452162492291,
                0.14203306623220732,
                0.11236283324687442,
                -0.028082586316699038,
                -0.030512745105805997,
                -0.013180306958923659,
                0.13992470912616956,
                0.006701813842539577,
                0.06288273006627597,
                0.04082907088053424,
                -0.06920722418815207,
                0.031028021537697695,
                -0.05542441590668065,
                -0.12555901980339823,
                -0.04205969745799083,
                -0.03512438823630212,
                0.09665829100296643,
                0.12756284123238743,
                0.1217641308280411,
                0.14274379344664917,
                -0.08023096291644202,
                -0.3044189818396728,
                -0.1382528757381723,
                -0.06724493072400235,
                -0.005610431018505347,
                -0.0802285742741109,
                -0.004347903722939037,
                -0.03854056533672742,
                -0.08540651181473856,
                -0.01144630254786951,
                0.12436236623319542,
                -0.002179178206677397,
                -0.03484893603822048,
                -0.08268914332498162,
                -0.02394734711907527,
                0.03765328041533846,
                0.05711039580202293,
                0.05281874630329061,
                -0.06371955401333981,
                -0.04063743530526905,
                -0.04085186461252941,
                -0.10063923442727458,
                -0.0817315559691796,
                0.007421480721181201,
                0.018134458834236294,
                0.18526153904519005,
                0.062412626241926436,
                0.1728519285774957,
                -0.05950314033245833,
                -0.09507793169267585,
                -0.054497546486840236,
                -0.0123333384310305,
                -0.010461285061511205,
                -0.008890116938965815,
                -0.041347803305799576,
                0.07730680835513444,
                0.04311871856685543,
                -0.06446147350574814,
                -0.1169651989746764,
                0.02095646227755151,
                -0.05374861457557717,
                -0.07753104509012873,
                -0.04475118196794277,
                -0.048547116440803915,
                -0.0006180110531726868,
                -0.04945204397707992,
                -0.054857630906999875,
                -0.017462886559549137,
                -0.05529941594272522,
                -0.10096759187283688,
                -0.16420877981457918,
                -0.04195167231031902,
                -0.10329576428476256,
                0.05554268598942282,
                0.15417824139529465,
                0.043273755856055855,
                0.06280920038903752,
                0.01529527781421803,
                -0.05485208948499782,
                -0.10872277249642903,
                -0.0623166727780324,
                -0.10116817669705142,
                0.051847168842698056,
                -0.0489079457532071,
                0.00641118888678232,
                -0.07095137720295945,
                -0.04957921119404597,
                0.05582152620185168,
                -0.07045198643199466,
                -0.0060828823043316185,
                -0.01929137420061695,
                0.022090098063431672,
                -0.08690800570277475,
                0.003562484771302387,
                -0.04229500234817807,
                0.07571763192813233,
                0.01774838468194873,
                -0.025951158028819376,
                -0.19735216383390675,
                -0.1518495888807024,
                -0.1798218182051308,
                -0.027702213953604903,
                0.06476696223914385,
                0.0027313052037117674,
                0.050036363195638194,
                -0.03343930982341057,
                -0.08636083976058448,
                -0.03856387734325288,
                -0.15891312649418968,
                -0.06196899431373099,
                0.005651944275618804,
                0.008569243668065921,
                -0.11111099126448902,
                -0.026357176331608632,
                0.037894013814812035,
                0.01752275447004601,
                -0.09486090171664958,
                0.059144696860692264,
                0.026039813160429675,
                -0.1229064860108885,
                0.006608799684894426,
                0.04745138410693696,
                0.035085834889136025,
                0.06788789947394835,
                0.037689876436708736,
                0.01869971652081578,
                -0.11124783442247727,
                -0.2188704230441824,
                -0.07240073395790375,
                -0.1169745993533236,
                0.13427227326319688,
                -0.0024734104385034064,
                0.15951110022557435,
                0.11025579134622962,
                0.08634310898344999,
                -0.05996839352581997,
                0.02665587142856856,
                0.09870041585552423,
                -0.1437081245145033,
                -0.1836668440751306,
                -0.003609665371623118,
                0.0013206048684978088,
                0.007394694275887994,
                0.01291648716658786,
                0.08254739390971773,
                0.03953850180278946,
                -0.05670500460429611,
                -0.06422609882212219,
                0.0028277833646158366,
                0.09728233413664725,
                -0.0680255072813141,
                -0.032990990570823504,
                -0.01514721728374222,
                -0.0933637056311839,
                -0.15710945481713895,
                -0.09868787002127936,
                -0.0987398108533417,
                -0.004492723171271355,
                -0.011053599402824625,
                0.15932221804177302,
                -0.040866091948556275,
                -0.009411366466830723,
                0.010546984132407526,
                -0.010785759249673932,
                -0.07341902412356627,
                -0.08588188026489471,
                -0.1029580656177361,
                -0.1344777292845885,
                -0.04059579843415322,
                0.01587810235911101,
                0.01661727931980051,
                -0.07402197425629412,
                0.03033688142121907,
                0.01597314921089823,
                -0.09746045414577945,
                0.08236762856491787,
                -0.007960983769434727,
                -0.05497749766347844,
                0.012499835135379287,
                -0.060333571131173096,
                -0.07218475378734499,
                -0.03423582208217918,
                -0.002932591434797675,
                -0.1324300890934284,
                -0.13055251929929498,
                -0.25175552940660184,
                -0.1901641797467326,
                -0.09861862219533904,
                -0.08573308264849919,
                -0.10733864044967141,
                -0.10592372192990779,
                -0.15131852324583298,
                -0.11517990380964972,
                -0.11333683461486065,
                -0.13418672464009265,
                -0.06716877509561953,
                -0.010241232906012714,
                -0.06686981786312837,
                -0.03485556416200957,
                -0.030869439846034068,
                -0.054013250661418225,
                -0.045384685924064645,
                -0.021052338613733207,
                -0.006824765682940507,
                0.005493059299278133,
                0.048026380418297446,
                -0.036501644118285693,
                0.015927810024672383,
                -0.04270704625820285,
                -0.0479431240747077,
                -0.05471620481076856,
                -0.1375625361318739,
                -0.03841386921219684,
                -0.22672535575569408,
                -0.22333665509192113,
                -0.2572682363210883,
                -0.23431595905343328,
                -0.2640554991708236,
                -0.21171814047193477,
                -0.12366919957011539,
                -0.08335488413731398,
                -0.14765639362080646,
                -0.11194935288618171,
                -0.05892934098453365,
                -0.011113034498039156,
                -0.03658833810063986,
                0.008583846390654784,
                0.09789956325633227,
                -0.01456570655916465,
                -0.017942264654014,
                0.00425680265077449,
                -0.04551875474133312,
                0.0017044450985328591,
                0.10746684107854888,
                0.09719340667824942,
                -0.05574135349881401,
                0.02766273557478997,
                -0.09035330020665115,
                0.0755674646059708,
                -0.04691443166072628,
                -0.03659919027733641,
                -0.07948607962442716,
                -0.12208259733933743,
                -0.10017194401957286,
                -0.1180061213097647,
                -0.13063339614897196,
                -0.09397266290993585,
                -0.1321293857073404,
                -0.04617842793520371,
                -0.1421578342176136,
                0.022369365470950982,
                -0.07656652745797281,
                -0.1289484237758037,
                0.024876504359409878,
                -0.0561969538663775,
                0.03595342398633872,
                -0.05268269433425596,
                0.016199051189674876,
                -0.04713337333909947,
                -0.04582979025164339,
                -0.03417313069933513,
                -0.0007865700442867285,
                -0.05420549357509152,
                0.06131528220453727,
                0.0005320690944892122,
                0.014187332726046411,
                -0.03036704164708554,
                -0.01236250596858536,
                -0.14585227898713152,
                0.0049018821155918995,
                -0.01739999758115814,
                -0.09306779740698821,
                0.023810976619289343,
                -0.0554977842102277,
                0.018463396869960222,
                -0.07254240526800176,
                -0.07109815341496548,
                -0.013678256106827208,
                0.06170556965922049,
                -0.02363948796815929,
                -0.03183752648684725,
                0.02233436906958315,
                0.042753462124406776,
                0.019561797563779716,
                0.05395628127643637,
                0.05964189571616191,
                -0.07470595604412686
            ],
            [
                0.01937959308750225,
                -0.024021841329983185,
                -0.054506419386504,
                0.051884465977659486,
                0.008300781884986357,
                -0.07941993800561639,
                -0.03021000243292688,
                0.005080124473436706,
                -0.005773672621768477,
                -0.0030344948827921957,
                -0.07401530920885602,
                0.019554562142731786,
                -0.03076202581191666,
                -0.09621794134941607,
                0.053384427600466015,
                0.05593849473015228,
                0.11593811482135392,
                -0.04729766123824239,
                -0.028282207527543474,
                0.0537115462340389,
                -0.06325244959583437,
                -0.03170807441142613,
                -0.0003914233422202639,
                -0.028326752519080053,
                0.01100497643181575,
                -0.07902360040455837,
                -0.020662401992881996,
                -0.0082716818594008,
                0.00440402738298008,
                0.0692952757137095,
                -0.03131597810138328,
                -0.027124528277843337,
                -0.005636001728021104,
                -0.025009185761777283,
                -0.01892885144940587,
                -0.08484717692802005,
                -0.02942405996300866,
                0.03130611608612276,
                -0.011580446741577355,
                0.058892890499129186,
                -0.029749238783852723,
                0.03160848319794405,
                0.02929781461800659,
                -0.09881069119534822,
                -0.027015448371617765,
                -0.06290415748790373,
                -0.035511334821089834,
                -0.0437326835551361,
                0.0011618970537416427,
                -0.005097189288154319,
                -0.03732538752421635,
                -0.024173588720266186,
                0.08128212632885704,
                -0.026591640585672312,
                0.03245547149315563,
                0.09534644992776796,
                -0.015708475538360467,
                -0.0023380789541202155,
                0.03209569958670499,
                0.03689095275703591,
                0.003677122520284682,
                -0.02719894214799405,
                0.0069577462170326634,
                -0.03151726639607997,
                0.05849474504693305,
                0.090740901108811,
                0.030001981077192135,
                -0.07691548192278923,
                0.04772768144806617,
                -0.04568462864335891,
                0.030367392470179194,
                -0.17202412921761992,
                -0.1922942025588523,
                -0.013701601170603098,
                0.09473186617225084,
                -0.005461243049363293,
                -0.03609246632039908,
                0.05449246668451313,
                -0.14447207485878405,
                -0.062090276813425715,
                -0.024413291995657473,
                -0.019954208727789618,
                0.07412865702965932,
                -0.07087872294036511,
                0.010973159995869676,
                -0.025658412404149705,
                0.007925825263408787,
                -0.037376022841958484,
                -0.08816000373882403,
                0.012330088217957766,
                -0.0030796153057198084,
                0.03662072033360375,
                0.10379115963687428,
                0.20384404722109167,
                0.18985291274895572,
                0.22990020541382844,
                0.09599311790806743,
                0.03613483449603153,
                -0.008151312467119748,
                -0.025816030661314854,
                -0.11048211306877186,
                -0.06679120498645436,
                0.06353747848683407,
                0.17572289320214354,
                0.0936069259582502,
                0.06108089953692147,
                0.017002971785100945,
                0.0705585784718562,
                -0.09003468859617336,
                0.024238796466625634,
                -0.05734751541183518,
                0.10379635610998102,
                -0.0030174148665887985,
                -0.027771423763473576,
                -0.0031832490734168134,
                0.09982353469038123,
                -0.051509972388539306,
                0.0952601408474438,
                0.13698660505760119,
                0.027619292929542915,
                -0.033416987619418755,
                0.02382496719192004,
                0.09140469603660918,
                0.07536727007040867,
                0.04258868768109236,
                -0.01563728172000655,
                0.14245716930644056,
                0.05109533508881177,
                -0.009293640219422729,
                0.025971324181981215,
                0.08963142950020112,
                0.037414660192878584,
                0.10116351877056425,
                0.13383579480091054,
                0.0021867192351406,
                0.08758508306771075,
                0.0597677172123447,
                0.028967066536161323,
                -0.0069791879724922234,
                -0.007069293755866143,
                -0.03527080987247354,
                -0.03629928410920996,
                -0.03410749973368081,
                0.10763628907848585,
                0.015588757946680507,
                0.044784895344227096,
                -0.004032204940991411,
                0.015015693727869536,
                0.011849449361791123,
                0.20175550667969225,
                0.2544119058376064,
                0.10082106018452744,
                0.0229883885206937,
                -0.15679938531095322,
                -0.00399897829250181,
                -0.07346882272905778,
                0.03014062656489398,
                0.05292853359365908,
                0.18514587924261047,
                0.18028024486075772,
                0.23252026533169043,
                0.13770687976676094,
                0.16279379275599298,
                0.10338848263713685,
                0.016796797989608765,
                -0.05557846781694279,
                0.09728941727129592,
                0.09688885252643784,
                0.01046813437614495,
                0.039225708707561854,
                0.0646464067924008,
                0.02039398389914522,
                0.11991182032730129,
                0.0589309664220422,
                0.16182691354179277,
                0.19887415720785398,
                0.22513540177300764,
                0.18038786788516423,
                -0.01140980967487953,
                -0.039549330770554884,
                0.04663495075023354,
                -0.04864953441471407,
                0.01893645672720504,
                0.006228282523461397,
                -0.07442827720630744,
                -0.02818058030758867,
                0.12382559902845659,
                0.2994131574943934,
                0.20178760238079327,
                0.1616776029712868,
                0.1314275717635782,
                0.16681151878814823,
                0.11330460239210612,
                0.0931375499967446,
                -0.01899940963594844,
                0.025914760351681998,
                -0.023042094238243147,
                -0.02430694924360985,
                0.02442609965242215,
                0.060162159698331115,
                -0.028922408910965404,
                0.19422572859824383,
                0.17368804339002955,
                0.08666551278576036,
                0.2533936892329695,
                0.11192565614430117,
                -0.0847593576705084,
                -0.09827440986222583,
                -0.17564747327733135,
                0.12339509029986191,
                -0.027249468053349147,
                0.0024492861096177265,
                0.04515076156224454,
                0.0884320461264915,
                0.1990537650845387,
                0.22829962819499253,
                0.1358856145928079,
                0.062218417407486605,
